digraph Tree {
node [shape=box] ;
0 [label="number_pets <= 3.031\nentropy = 1.0\nsamples = 100.0%\nvalue = [0.5, 0.5]\nclass = fail"] ;
1 [label="number_pets <= 2.756\nentropy = 0.259\nsamples = 45.8%\nvalue = [0.956, 0.044]\nclass = fail"] ;
0 -> 1 [labeldistance=2.5, labelangle=45, headlabel="True"] ;
2 [label="entropy = 0.0\nsamples = 34.8%\nvalue = [1.0, 0.0]\nclass = fail"] ;
1 -> 2 ;
3 [label="humor <= 37.695\nentropy = 0.684\nsamples = 11.0%\nvalue = [0.818, 0.182]\nclass = fail"] ;
1 -> 3 ;
4 [label="number_pets <= 2.962\nentropy = 0.503\nsamples = 1.8%\nvalue = [0.111, 0.889]\nclass = success"] ;
3 -> 4 ;
5 [label="entropy = 0.0\nsamples = 1.4%\nvalue = [0.0, 1.0]\nclass = success"] ;
4 -> 5 ;
6 [label="humor <= 36.443\nentropy = 1.0\nsamples = 0.4%\nvalue = [0.5, 0.5]\nclass = fail"] ;
4 -> 6 ;
7 [label="entropy = 0.0\nsamples = 0.2%\nvalue = [1.0, 0.0]\nclass = fail"] ;
6 -> 7 ;
8 [label="entropy = 0.0\nsamples = 0.2%\nvalue = [0.0, 1.0]\nclass = success"] ;
6 -> 8 ;
9 [label="humor <= 39.028\nentropy = 0.258\nsamples = 9.2%\nvalue = [0.957, 0.043]\nclass = fail"] ;
3 -> 9 ;
10 [label="humor <= 38.467\nentropy = 0.918\nsamples = 0.6%\nvalue = [0.667, 0.333]\nclass = fail"] ;
9 -> 10 ;
11 [label="entropy = 0.0\nsamples = 0.4%\nvalue = [1.0, 0.0]\nclass = fail"] ;
10 -> 11 ;
12 [label="entropy = 0.0\nsamples = 0.2%\nvalue = [0.0, 1.0]\nclass = success"] ;
10 -> 12 ;
13 [label="number_pets <= 2.995\nentropy = 0.159\nsamples = 8.6%\nvalue = [0.977, 0.023]\nclass = fail"] ;
9 -> 13 ;
14 [label="entropy = 0.0\nsamples = 7.8%\nvalue = [1.0, 0.0]\nclass = fail"] ;
13 -> 14 ;
15 [label="number_pets <= 2.996\nentropy = 0.811\nsamples = 0.8%\nvalue = [0.75, 0.25]\nclass = fail"] ;
13 -> 15 ;
16 [label="entropy = 0.0\nsamples = 0.2%\nvalue = [0.0, 1.0]\nclass = success"] ;
15 -> 16 ;
17 [label="entropy = 0.0\nsamples = 0.6%\nvalue = [1.0, 0.0]\nclass = fail"] ;
15 -> 17 ;
18 [label="number_pets <= 3.462\nentropy = 0.513\nsamples = 54.2%\nvalue = [0.114, 0.886]\nclass = success"] ;
0 -> 18 [labeldistance=2.5, labelangle=-45, headlabel="False"] ;
19 [label="humor <= 70.151\nentropy = 0.725\nsamples = 26.8%\nvalue = [0.201, 0.799]\nclass = success"] ;
18 -> 19 ;
20 [label="humor <= 45.136\nentropy = 0.598\nsamples = 24.8%\nvalue = [0.145, 0.855]\nclass = success"] ;
19 -> 20 ;
21 [label="humor <= 39.859\nentropy = 0.778\nsamples = 14.8%\nvalue = [0.23, 0.77]\nclass = success"] ;
20 -> 21 ;
22 [label="number_pets <= 3.174\nentropy = 0.156\nsamples = 8.8%\nvalue = [0.023, 0.977]\nclass = success"] ;
21 -> 22 ;
23 [label="number_pets <= 3.171\nentropy = 0.414\nsamples = 2.4%\nvalue = [0.083, 0.917]\nclass = success"] ;
22 -> 23 ;
24 [label="entropy = 0.0\nsamples = 2.2%\nvalue = [0.0, 1.0]\nclass = success"] ;
23 -> 24 ;
25 [label="entropy = 0.0\nsamples = 0.2%\nvalue = [1.0, 0.0]\nclass = fail"] ;
23 -> 25 ;
26 [label="entropy = 0.0\nsamples = 6.4%\nvalue = [0.0, 1.0]\nclass = success"] ;
22 -> 26 ;
27 [label="number_pets <= 3.043\nentropy = 0.997\nsamples = 6.0%\nvalue = [0.533, 0.467]\nclass = fail"] ;
21 -> 27 ;
28 [label="entropy = 0.0\nsamples = 0.4%\nvalue = [0.0, 1.0]\nclass = success"] ;
27 -> 28 ;
29 [label="number_pets <= 3.091\nentropy = 0.985\nsamples = 5.6%\nvalue = [0.571, 0.429]\nclass = fail"] ;
27 -> 29 ;
30 [label="entropy = 0.0\nsamples = 0.6%\nvalue = [1.0, 0.0]\nclass = fail"] ;
29 -> 30 ;
31 [label="number_pets <= 3.447\nentropy = 0.999\nsamples = 5.0%\nvalue = [0.52, 0.48]\nclass = fail"] ;
29 -> 31 ;
32 [label="number_pets <= 3.403\nentropy = 0.999\nsamples = 4.6%\nvalue = [0.478, 0.522]\nclass = success"] ;
31 -> 32 ;
33 [label="humor <= 40.744\nentropy = 0.982\nsamples = 3.8%\nvalue = [0.579, 0.421]\nclass = fail"] ;
32 -> 33 ;
34 [label="entropy = 0.918\nsamples = 1.2%\nvalue = [0.333, 0.667]\nclass = success"] ;
33 -> 34 ;
35 [label="entropy = 0.89\nsamples = 2.6%\nvalue = [0.692, 0.308]\nclass = fail"] ;
33 -> 35 ;
36 [label="entropy = 0.0\nsamples = 0.8%\nvalue = [0.0, 1.0]\nclass = success"] ;
32 -> 36 ;
37 [label="entropy = 0.0\nsamples = 0.4%\nvalue = [1.0, 0.0]\nclass = fail"] ;
31 -> 37 ;
38 [label="humor <= 66.814\nentropy = 0.141\nsamples = 10.0%\nvalue = [0.02, 0.98]\nclass = success"] ;
20 -> 38 ;
39 [label="entropy = 0.0\nsamples = 9.6%\nvalue = [0.0, 1.0]\nclass = success"] ;
38 -> 39 ;
40 [label="humor <= 68.141\nentropy = 1.0\nsamples = 0.4%\nvalue = [0.5, 0.5]\nclass = fail"] ;
38 -> 40 ;
41 [label="entropy = 0.0\nsamples = 0.2%\nvalue = [1.0, 0.0]\nclass = fail"] ;
40 -> 41 ;
42 [label="entropy = 0.0\nsamples = 0.2%\nvalue = [0.0, 1.0]\nclass = success"] ;
40 -> 42 ;
43 [label="number_pets <= 3.433\nentropy = 0.469\nsamples = 2.0%\nvalue = [0.9, 0.1]\nclass = fail"] ;
19 -> 43 ;
44 [label="entropy = 0.0\nsamples = 1.8%\nvalue = [1.0, 0.0]\nclass = fail"] ;
43 -> 44 ;
45 [label="entropy = 0.0\nsamples = 0.2%\nvalue = [0.0, 1.0]\nclass = success"] ;
43 -> 45 ;
46 [label="humor <= 83.559\nentropy = 0.19\nsamples = 27.4%\nvalue = [0.029, 0.971]\nclass = success"] ;
18 -> 46 ;
47 [label="number_pets <= 3.646\nentropy = 0.113\nsamples = 26.6%\nvalue = [0.015, 0.985]\nclass = success"] ;
46 -> 47 ;
48 [label="number_pets <= 3.645\nentropy = 0.191\nsamples = 13.6%\nvalue = [0.029, 0.971]\nclass = success"] ;
47 -> 48 ;
49 [label="number_pets <= 3.553\nentropy = 0.112\nsamples = 13.4%\nvalue = [0.015, 0.985]\nclass = success"] ;
48 -> 49 ;
50 [label="entropy = 0.0\nsamples = 7.6%\nvalue = [0.0, 1.0]\nclass = success"] ;
49 -> 50 ;
51 [label="number_pets <= 3.557\nentropy = 0.216\nsamples = 5.8%\nvalue = [0.034, 0.966]\nclass = success"] ;
49 -> 51 ;
52 [label="entropy = 0.0\nsamples = 0.2%\nvalue = [1.0, 0.0]\nclass = fail"] ;
51 -> 52 ;
53 [label="entropy = 0.0\nsamples = 5.6%\nvalue = [0.0, 1.0]\nclass = success"] ;
51 -> 53 ;
54 [label="entropy = 0.0\nsamples = 0.2%\nvalue = [1.0, 0.0]\nclass = fail"] ;
48 -> 54 ;
55 [label="entropy = 0.0\nsamples = 13.0%\nvalue = [0.0, 1.0]\nclass = success"] ;
47 -> 55 ;
56 [label="number_pets <= 3.787\nentropy = 1.0\nsamples = 0.8%\nvalue = [0.5, 0.5]\nclass = fail"] ;
46 -> 56 ;
57 [label="entropy = 0.0\nsamples = 0.4%\nvalue = [1.0, 0.0]\nclass = fail"] ;
56 -> 57 ;
58 [label="entropy = 0.0\nsamples = 0.4%\nvalue = [0.0, 1.0]\nclass = success"] ;
56 -> 58 ;
}